-0.06823384,-0.06426353,-0.06861242,-0.048211902,-0.06396771,-0.019421777,-0.018385934,-0.016919537,-0.05218661,-0.02614496,-0.043764293,-0.02776528,-0.06571428,-0.004984654,-0.013756664,-0.014178716,-0.025925742,-0.03282331,-0.06489339,-0.013773616,-0.0315831,-0.06940421,-0.0347118,-0.0074595865,-0.016324716,-0.04372678,-0.06995059,-0.027132934,-0.056103528,-0.03012247,-0.0080748135,-0.04852198,-0.069343604,-0.04739183,-0.0029155384,-0.01585453,-0.029789805,-0.04765013,-0.007556273,-0.0031414465,0.049695432,-0.0015288508,0.015862364,0.029003946,0.05849497,-0.0032753346,-0.03882522,0.0054268697,-0.000119830715,-0.0025022994,-0.04728355,-0.008750837,-0.05273296,-0.06774377,-0.07127411,-0.073853634,-0.06401823,-0.01336902,-0.024405697,-0.020166414,-0.069609046,-0.023556294,-0.06291931,-0.009804327,-0.021516394,-0.022654725,0.02374782,0.04621826,0.016041229,0.021231743,0.04302584,0.14122273,0.13759983,0.11751707,0.08359688,-0.002137385,-0.0063946545,-0.038343966,-0.009075426,-0.018975725,-0.04181115,-0.034473937,-0.060344934,-0.007316796,-0.0749769,-0.048699692,-0.04931298,-0.03815046,-0.07257105,-0.023391709,-0.053793784,-0.0006159074,-0.015632445,-0.038528983,0.060033116,0.13817394,0.17005096,0.23967037,0.17005236,0.19415817,0.12758031,0.091570616,0.06839453,0.019593237,-0.006277033,-0.051699486,-0.104665294,-0.110850275,-0.120091416,-0.04568491,-0.07301928,-0.017741153,-0.0058029164,-0.044633158,-0.003248399,-0.031272817,-0.07493821,0.008943906,0.013029801,0.045671716,0.12031634,0.1554844,0.2463924,0.17716932,0.2605534,0.282675,0.21891284,0.23811345,0.116898745,0.09941674,0.09812325,-0.02581566,-0.0003403505,-0.061022036,-0.122430235,-0.28290808,-0.18757808,-0.04816362,-0.035426337,-0.06284949,-0.05217292,-0.018958515,-0.06187624,0.026932307,0.025445117,0.04765155,0.04453561,0.1207618,0.11234632,0.085694104,0.09672016,0.074629955,0.08643117,0.14133905,0.151069,0.16340677,0.1678895,0.117166564,0.07196844,0.028414564,0.005673104,-0.0052040126,-0.07957513,-0.16555387,-0.1239356,-0.10056776,-0.034460243,-0.07228521,-0.052634887,-0.062317945,-0.030707086,0.04763015,0.061672777,0.07840446,0.11663167,0.112009905,0.16750094,0.11480999,0.10019173,0.061581694,0.05158001,0.052693397,0.017562974,0.05478808,0.022900375,0.030626861,0.031656753,0.03005878,-0.003300543,0.0058028637,-0.04497297,-0.06831493,-0.020547586,-0.004312871,-0.010581968,-0.051800102,-0.013537227,-0.029708091,-0.03713508,0.08405583,0.19757204,0.08802332,0.11676416,-0.002511987,0.03175351,0.009621742,0.038918953,-0.013285078,0.0006572853,0.025837606,0.0017251727,0.05556227,-0.025871022,-0.026074147,-0.03184239,0.03501047,-0.009139625,-0.01984222,0.043353595,-0.057783134,-0.006071588,0.05768141,0.05211817,-0.016638797,-0.040890038,-0.011974826,-0.03240705,0.03156236,0.21608171,0.09096158,0.09092999,0.06423876,0.012315412,0.013830912,0.065457456,0.028261378,0.11037085,0.12412329,0.11248038,0.050804112,-0.0371899,-0.007046029,-0.011538648,0.029442567,0.020011107,0.044016775,0.08016694,-0.1404037,-0.09823654,0.02124055,0.08214684,-0.039189134,-0.020693947,-0.004439857,-0.030203657,0.06392146,0.24380834,0.118307225,0.0737938,0.07912672,0.08220675,0.07613291,-0.0071610217,-0.040872406,-0.029827071,0.032890193,0.084647834,-0.0049058846,-0.04110707,-0.0837987,-0.048021473,-0.009502766,-0.014673219,0.0100404415,0.1157824,0.007312289,-0.075303815,0.025693666,0.045867316,-0.014507956,-0.034847543,-0.0697069,-0.023077074,0.036191836,0.11923534,0.022325601,0.013674862,-0.029718567,-0.068475254,-0.13870014,-0.18214983,-0.20426719,-0.2632979,-0.22656757,-0.024351565,-0.06265456,-0.06303315,-0.06244376,-0.049048815,-0.07173399,0.0039044076,-0.01645605,0.028367428,0.107754506,0.016173746,0.026938276,0.042102333,-0.036997654,-0.03950739,-0.05798603,-0.06007605,0.0009457591,-0.024559928,-0.17549331,-0.13576284,-0.20208713,-0.24003324,-0.24967211,-0.28148356,-0.23220602,-0.32152128,-0.22732681,0.04467662,-0.0299781,-0.12646985,-0.07035068,-0.058064863,0.010734251,-0.022043545,-0.027577622,0.036913525,0.1829945,0.21305561,0.1094546,0.08416396,-0.03747992,-0.040734492,-0.04799821,-0.07136624,-0.084312916,-0.19636965,-0.2324465,-0.34102762,-0.26822826,-0.21001476,-0.12667637,-0.066225596,-0.13744962,-0.091732726,0.0049099964,0.19776808,0.031434033,-0.06886277,-0.013220038,-0.0013116184,0.0312653,0.029707726,0.04271027,-0.10262111,-0.015378227,0.13188256,0.22724207,0.11105212,-0.0013116538,-0.06477498,-0.059892017,-0.07088666,-0.074558,-0.38991892,-0.37615556,-0.32047135,-0.12759608,-0.044387292,-0.02005542,-0.104877256,-0.065842874,0.003004919,0.12944947,0.22688119,0.050410192,0.063034445,-0.01226028,0.020500315,-0.027872892,-0.015334186,-0.071360774,-0.06531317,0.0028916053,-0.010522664,0.112648845,0.0693081,-0.029431965,-0.058318876,-0.033796433,-0.018793289,-0.0921976,-0.32408565,-0.19689675,-0.17157798,-0.021674689,-0.03431777,-0.032158893,-0.015773926,0.0012314562,0.021306857,0.18062457,0.27590466,0.1145934,-0.022767883,-0.02577293,0.028886694,-0.10606102,-0.11639695,0.020654103,-0.066504754,-0.039279513,-0.03176141,-0.008018539,0.06431902,-0.075078465,-0.023546701,-0.07161513,-0.0356893,-0.016468504,-0.11314983,-0.0009085129,-0.03761608,-0.03477856,-0.021701189,-0.024770448,0.010928058,0.05522451,0.062677406,0.23160866,0.2628136,0.115053974,-0.050347783,-0.09377683,-0.082761824,-0.11040611,-0.104309365,-0.027793042,-0.046343252,-0.032605708,0.061166935,0.039493844,0.05547016,-0.013505588,-0.036464408,-0.05247135,0.019040931,0.07704713,0.042498156,0.08845583,0.053419475,-0.035211302,-0.07291874,0.057065904,0.108856946,0.1039367,0.12773791,0.24269833,0.19901805,-0.016693633,-0.04791554,-0.102203794,-0.122730136,-0.0877006,-0.12658668,-0.06241501,-0.06575492,0.12040465,0.1437389,0.20380656,0.16200723,-0.051893737,-0.028683184,-0.067607895,0.008130662,0.08049819,0.14496726,0.018783359,0.03445214,-0.022409242,-0.012339344,0.08096694,0.14218403,0.15834701,0.1768868,0.10796722,0.08995103,-0.056231253,-0.011726911,-0.056331933,-0.093094856,0.015317921,-0.07807875,0.0009951083,0.07244574,0.10002968,0.17872988,0.19225444,0.11419093,-0.021667926,-0.070564926,-0.040080875,0.004841085,0.10625708,0.06518181,0.0038574385,0.015278049,0.021928197,0.047381487,0.078781895,0.18993714,0.17779379,0.11477858,0.10404487,0.03275586,0.028322304,0.020683348,-0.008071293,0.05080072,0.06496099,0.044748142,0.026189549,0.1414438,0.09437656,0.21108574,0.15018024,-0.015714223,-0.0004250146,-0.07461919,-0.07192248,0.018089922,0.14803717,0.043244537,0.03878266,-0.015523394,0.11952205,0.12636258,0.234966,0.1772788,0.08804982,0.051447336,0.09918281,0.072240755,0.08631343,0.10778025,0.12447734,0.10447796,0.06752468,0.11039249,0.12530978,0.14264633,0.11637166,0.12154488,0.15453444,-0.01396269,-0.024112195,-0.032993175,-0.029737921,0.022028182,0.15246001,0.14943407,0.04326097,0.15008736,0.2528841,0.19424838,0.18107115,0.14066589,0.12794156,0.024593256,0.009001832,0.051664583,0.040092126,0.067321725,0.104409456,0.11250074,0.08873579,0.12080155,0.17842735,0.16003917,0.091592416,0.10107123,0.060146924,-0.012672384,-0.067259006,-0.071943484,-0.010652588,0.016344396,0.1568807,0.1324644,0.04358415,0.19432361,0.14181721,0.082752794,0.05032657,0.053681795,-0.0040112897,-0.05284581,0.02431256,0.058392834,0.03576499,-0.0153950965,0.05007524,0.058071557,0.07336968,0.11653042,0.14787848,0.03472945,-0.017811365,-0.01556494,0.018576616,-0.03754263,-0.016456945,-0.067808434,-0.030408427,-0.015114768,0.08202719,0.13569994,0.17691825,0.1940036,0.13681488,0.052047793,0.034932323,0.00045773754,0.06080879,-0.035360906,-0.03608609,-0.018537994,0.024615468,-0.036874495,0.047888212,0.014359845,0.11256636,0.062654085,-0.008491834,0.009864491,-0.05152845,-0.058291383,-0.032797936,-0.04780869,-0.047353517,-0.06310005,-0.019544253,-0.022884399,0.06315765,0.095278464,0.08964748,0.06480468,0.07779739,-0.036764465,0.08679382,0.047692165,0.046814796,0.09238869,0.08720769,0.032229446,0.05112866,0.06452202,0.032249384,-0.0028137208,0.045497227,0.0026363176,-0.039757572,-0.03661359,-0.018113716,-0.07308356,-0.0049504167,-0.04962458,-0.013517093,-0.020557342,-0.030513983,-0.06351283,0.0016469728,-0.00028392344,-0.057962243,-0.10255061,-0.09821391,-0.045108654,0.026173422,0.001551264,0.08347368,0.11159301,0.06332576,0.08943245,0.12599237,0.08006651,0.014531785,0.0039324886,-0.07353125,-0.1263575,-0.07514089,-0.10197084,-0.10612389,-0.0085735265,-0.013094354,-0.06405149,-0.044834547,-0.07599903,-0.0136677325,-0.04509936,-0.05407163,-0.09758838,-0.26012874,-0.2353481,-0.261357,-0.20001262,-0.10164713,-0.103584595,-0.057488333,-0.02925808,-0.010959993,0.01635281,-0.022973446,-0.034664776,0.052418567,0.032092385,-0.041757334,-0.1512359,-0.12167337,-0.09477741,-0.077979475,-0.043182734,-0.030048292,-0.009110089,-0.020621328,-0.021716198,-0.053468674,-0.06544755,-0.028680585,-0.052533362,-0.08875035,-0.11027723,-0.09054572,-0.14503935,-0.14565988,-0.08709576,-0.083310075,-0.11139592,-0.08720484,-0.11933477,-0.09979626,-0.10458511,-0.019548701,-0.017324531,0.0073312856,-0.06268279,-0.026751738,-0.044578098,-0.01581262,-0.018454555,-0.048767567,-0.02142976,-0.05314467,-0.07557992,-0.032538507,-0.06274081,-0.075141035,-0.04283673,-0.056403976,-0.020411868,-0.06916461,-0.011863096,-0.032625392,-0.037779465,-0.0672191,-0.032855123,-0.07401737,-0.073269926,-0.01586831,-0.04882515,-0.0128294565,-0.03061132,-0.05539635,-0.00931096,-0.04303568,-0.034964018,-0.04128398,-0.02140055,-0.067718364,-0.042746484,-0.01163956
-0.15629837,-0.096718065,-0.14984277,-0.09110399,-0.13216287,-0.11231806,-0.13268149,-0.12571022,-0.15490946,-0.13415188,-0.1193142,-0.15261766,-0.116817646,-0.09252106,-0.14835812,-0.13353112,-0.14708996,-0.10256887,-0.09904102,-0.08940589,-0.12632576,-0.14580724,-0.09612536,-0.11280472,-0.12329888,-0.09037311,-0.110088535,-0.15550303,-0.14861292,-0.15368256,-0.13231435,-0.12127175,-0.10526885,-0.12613039,-0.07804166,-0.101100765,-0.11081806,-0.062484454,-0.041707985,-0.05427471,0.049140856,-0.064425066,-0.09896723,-0.14425798,-0.08584085,-0.0708633,-0.054235168,-0.062460087,-0.060927153,-0.12099102,-0.115494214,-0.14223069,-0.14335266,-0.13279739,-0.12627272,-0.10276856,-0.11065378,-0.12353437,-0.11879366,-0.09542527,-0.13623317,-0.11356752,-0.08185251,-0.051330008,-0.054052196,-0.024475832,0.12615947,0.20248774,0.1611299,0.13951564,0.07415902,0.020713618,0.10723382,0.124535106,0.16210115,0.06974782,-0.008325308,0.018423727,-0.012655616,-0.057948146,-0.12168837,-0.12855536,-0.15362325,-0.14882106,-0.1519503,-0.09253671,-0.15040796,-0.12303057,-0.1553076,-0.14695415,-0.12764643,-0.029675107,0.043729927,0.015446354,0.2042393,0.25356582,0.26616323,0.23213135,0.13422653,0.0063695894,0.04862067,0.1405515,0.13326485,0.090935215,0.10320831,0.08841256,0.015331089,-0.10397308,-0.12048394,-0.13787846,-0.15393752,-0.15050465,-0.09205865,-0.09499027,-0.16655627,-0.10712958,-0.14727367,-0.14822072,-0.1405149,-0.03192219,-0.04703104,0.029500484,0.06092788,0.14680584,0.13654588,0.08972922,0.043208644,0.13876282,0.090428725,0.0016022987,-0.017106386,-0.15915455,-0.28143188,-0.26996768,-0.19905248,-0.13915543,-0.10423301,-0.07295748,-0.07711248,-0.15034835,-0.12266604,-0.12969092,-0.14683583,-0.10689139,-0.16531733,-0.23260777,-0.11438634,-0.016143978,0.071324244,0.043095294,0.09687986,-0.013620568,-0.03866604,0.039437614,0.0797555,0.078801185,0.2846478,0.341339,0.24494533,0.18988772,0.17089358,0.10304065,-0.017181914,0.027409578,0.053054173,0.053546693,-0.10687836,-0.094129935,-0.09884595,-0.09013634,-0.12192528,-0.12719618,-0.07392183,-0.07408383,-0.030850945,0.08554682,0.066481434,0.04793714,0.049678866,-0.0443579,-0.009490781,-0.0058742044,-0.074137054,-0.09051543,-0.10503199,-0.025509814,0.008760907,0.047567535,0.055576205,0.12728438,0.21118031,0.30043548,0.45746145,0.23488809,-0.026855668,-0.11883981,-0.119444795,-0.094061546,-0.14990368,-0.104387864,-0.034525406,-0.005355497,0.0417963,0.061571218,0.06286293,0.09907822,0.07981615,0.04136347,-0.06898327,-0.080117,-0.07913348,-0.11264195,-0.14447163,-0.088358305,-0.01037961,0.01781904,-0.04520371,0.05061738,0.08670177,0.27645552,0.46899652,0.36346015,0.014626341,-0.0807684,-0.13528916,-0.11950337,-0.164024,-0.14821267,-0.15261598,-0.020826917,0.0772627,-0.010048913,0.061159577,0.07709776,0.07351871,0.017985605,-0.02984861,-0.067706555,-0.07191467,-0.06769504,-0.03378002,-0.11232679,-0.11286989,-0.024287812,0.027119385,0.009824077,0.051036835,0.2961613,0.5005786,0.36146876,-0.040065534,-0.10886102,-0.12892108,-0.10758685,-0.12155399,-0.13441731,-0.12898654,-0.085209474,0.040021542,0.012547742,0.065811336,-0.0038106092,-0.01901539,-0.049055982,-0.04908796,-0.07274838,-0.179146,-0.21521094,-0.105100684,-0.14029779,-0.049935676,-0.037340235,0.015588698,0.023875058,0.03582392,0.30011716,0.6587517,0.37556243,0.0010089353,-0.11783576,-0.11663576,-0.09673041,-0.10959827,-0.094366446,-0.0593537,-0.06046543,-0.04904355,-0.076845,-0.047737684,0.0285742,-0.07055238,-0.047136318,0.03535949,-0.10502479,-0.30486658,-0.36357895,-0.19052762,-0.073147155,-0.08302546,-0.08230475,-0.02600752,-0.027011508,-0.05697111,0.27759928,0.4783315,0.14052267,-0.018891681,-0.09121131,-0.13196184,-0.09770288,-0.11506709,-0.13667773,-0.13224766,-0.2461439,-0.09554768,-0.14858787,-0.10344403,-0.08962604,-0.1068461,-0.08978388,-0.03798984,-0.03988759,-0.3898574,-0.5051574,-0.28427896,-0.23116025,-0.22550014,-0.082361,-0.13405637,-0.1471396,-0.21801287,0.17951582,0.19939145,-0.021345153,-0.089870274,-0.13093448,-0.15476188,-0.09999866,-0.12537968,-0.17477474,-0.3184665,-0.1507444,-0.068425454,-0.15462615,-0.13761538,-0.07833874,0.015290812,0.08722889,0.34566167,0.22148734,-0.29988495,-0.38406435,-0.23103848,-0.2054026,-0.2718468,-0.26326537,-0.1867068,-0.10756204,-0.07606567,0.22017811,0.2209525,-0.13405873,-0.10138646,-0.13191682,-0.10469027,-0.12285675,-0.117435746,-0.14314191,-0.3531589,-0.15706292,-0.040612716,0.015615957,-0.0405899,-0.0008343416,0.111155964,0.2574269,0.38369125,0.14215383,-0.27649733,-0.21873043,-0.1550799,-0.20454738,-0.18045497,-0.22088385,-0.18462679,-0.0012015535,0.17369686,0.44703764,0.3181183,-0.14892833,-0.104428984,-0.10664137,-0.10988952,-0.101716004,-0.120080985,-0.12787382,-0.27421263,-0.006121172,-0.011712663,0.117938735,0.09157499,0.11347522,0.22554566,0.29905403,0.18572713,0.014149473,-0.2004003,-0.11132173,-0.14207509,-0.188299,-0.20601185,-0.18074307,-0.040069815,0.13406754,0.20462362,0.37158296,0.2928429,-0.16341606,-0.15614767,-0.09438708,-0.1102275,-0.14863393,-0.08895563,-0.1849481,-0.16067444,0.08071347,-0.0039407234,0.14014904,0.13478914,0.226065,0.22052576,0.13917173,0.13456208,0.030646246,-0.09107109,-0.0045470004,-0.16534778,-0.28799638,-0.18891424,-0.08482649,0.02544263,0.046342183,0.07000711,0.24176608,0.2164784,-0.06273511,-0.17373535,-0.14489041,-0.13921764,-0.13130383,-0.111230716,-0.20174207,-0.12249935,0.030843673,0.022571696,0.05625262,0.08520189,0.15989909,0.1941735,0.1794661,0.13603495,-0.008786343,-0.010805398,-0.017915674,-0.12656277,-0.16252136,-0.0025225403,0.0069443067,-0.019835701,0.00445477,0.027542524,0.20408495,0.117926314,-0.03649609,-0.15148497,-0.1503597,-0.10710112,-0.12592563,-0.14104691,-0.21724756,-0.048140563,0.026836148,0.100009255,-0.009141851,0.06389187,0.17763472,0.280548,0.2438643,-0.005252782,-0.16749527,-0.12936002,-0.08334835,0.06213596,0.053147495,0.11469529,0.10499571,-0.01261095,0.061665334,0.17388825,0.14501703,0.088452846,-0.07392283,-0.109706484,-0.10013664,-0.09517773,-0.15130669,-0.070703536,-0.14961128,-0.023402167,0.02306937,0.15377143,0.17631243,0.24109766,0.269507,0.29601938,0.25302073,0.040985644,-0.19467631,-0.16014381,-0.014064074,0.12652738,0.17040634,0.12869217,0.13074473,0.013413284,0.14081913,0.23691642,0.18855612,0.16118866,-0.09859927,-0.1475912,-0.10655826,-0.09569982,-0.13461456,-0.105192214,-0.087260514,0.14957811,0.20070659,0.24381268,0.23973529,0.35757965,0.31999725,0.38507432,0.3820549,0.26274246,0.09055802,0.0577944,0.14738671,0.16564593,0.21777496,0.19675845,0.14368758,0.18846324,0.26780853,0.27041242,0.14058511,0.05636889,-0.10527456,-0.14415736,-0.1363049,-0.08811184,-0.079660535,-0.053004358,0.022961129,0.20447822,0.35260868,0.29528186,0.31979054,0.29729292,0.28711998,0.23916477,0.27314848,0.33218512,0.23110625,0.12801653,0.22236502,0.1627906,0.16297762,0.21811563,0.102149725,0.18810593,0.27341008,0.23072053,0.04774534,-0.071690194,-0.095838524,-0.14840992,-0.1522594,-0.10451036,-0.0938442,-0.025459602,0.044310078,0.14757071,0.15259686,0.20069152,0.23867568,0.13975509,0.10137552,0.039826695,0.18050209,0.217075,0.22783358,0.16985683,0.18029602,0.052330934,0.14314216,0.1798071,0.11316388,0.07117504,0.15621923,0.18048126,0.06106245,-0.15531655,-0.07846487,-0.07538974,-0.085492104,-0.08978453,-0.1253729,-0.027748566,0.047041122,0.032769013,-0.033127602,0.10172408,0.060524512,0.05139342,0.095689036,0.055006478,0.14515088,0.15262318,0.31168124,0.12738147,0.08289104,0.12633477,0.087235406,0.11826428,0.20596494,0.16530067,0.13989696,0.12875582,0.06963299,-0.12581727,-0.10362015,-0.12935291,-0.13835834,-0.1498304,-0.095379524,-0.112062246,-0.026678436,-0.014571335,-0.0075772633,0.022716021,0.0059853913,0.064638525,0.17388251,0.20318712,0.27475256,0.27563977,0.27661368,0.25648323,0.2053062,0.15784094,0.09574629,0.19280785,0.17514257,0.14764453,0.08372939,0.055419832,-0.0064813336,-0.16172928,-0.10043223,-0.15613212,-0.15467846,-0.086656906,-0.13961396,-0.14902395,-0.08017947,-0.07206426,-0.22276232,-0.2405983,-0.14220072,-0.043316673,0.059515804,0.090957284,0.13673429,0.160987,0.1977729,0.20251201,0.14701322,0.1541382,0.027168712,0.07974926,-0.10185036,-0.16885273,-0.25630674,-0.09709086,-0.07027122,-0.097495586,-0.09927167,-0.13778004,-0.112842135,-0.14396319,-0.122381516,-0.1056396,-0.08654274,-0.18205751,-0.30428118,-0.3308506,-0.37719032,-0.36729282,-0.38249046,-0.34055063,-0.29012442,-0.49760872,-0.33101162,-0.34971368,-0.24429347,-0.23932083,-0.32125998,-0.44897667,-0.43813694,-0.4554905,-0.33504006,-0.14662385,-0.13278283,-0.12301352,-0.09490621,-0.10932713,-0.092706196,-0.15489003,-0.12248456,-0.101541676,-0.08927526,-0.16175951,-0.17980152,-0.2837713,-0.34158987,-0.36072856,-0.4203088,-0.3501266,-0.2891984,-0.22671744,-0.26776215,-0.399567,-0.32789496,-0.30560848,-0.27492225,-0.26475513,-0.2595274,-0.22950894,-0.21750492,-0.1610866,-0.12412395,-0.12053741,-0.13565972,-0.09052887,-0.13819349,-0.12593381,-0.097756125,-0.12894553,-0.08819153,-0.1386841,-0.13850875,-0.13371624,-0.09007263,-0.16616915,-0.15788658,-0.14611275,-0.12212515,-0.14542791,-0.17680347,-0.18127339,-0.16791606,-0.16992928,-0.15907863,-0.14833368,-0.13383608,-0.1665989,-0.17504397,-0.17644048,-0.10907933,-0.15541926,-0.123732805,-0.13060102,-0.15387964
-0.0816023,-0.080170624,-0.046128053,-0.101180576,-0.06090981,-0.10472854,-0.05958985,-0.07074644,-0.06592696,-0.053148296,-0.03699061,-0.06828133,-0.044346984,-0.0694375,-0.07068209,-0.066501155,-0.097653605,-0.08415518,-0.10275433,-0.07419514,-0.08943159,-0.066917896,-0.08505569,-0.09506973,-0.08100619,-0.09949673,-0.07460488,-0.050455872,-0.05622003,-0.07853351,-0.06638424,-0.10340307,-0.07035613,-0.06592376,-0.09624965,-0.035244312,-0.04328669,-0.064437926,-0.036236603,-0.056852274,-0.05794353,-0.039877422,-0.08322498,-0.13222164,-0.05715291,-0.07620969,-0.05626593,-0.055448383,-0.030051637,-0.08850239,-0.04897154,-0.057607934,-0.06180036,-0.09202535,-0.05645923,-0.07439742,-0.0904287,-0.09571426,-0.08164216,-0.07364539,-0.060796596,-0.07157007,-0.07043512,-0.025721755,-0.010496253,0.12050042,0.10964951,0.10899167,0.26786664,0.2214513,0.29150045,0.1945654,0.19881862,0.21630134,0.19433327,0.20342405,0.19409233,0.1337729,0.100707814,0.015100739,-0.03440385,-0.08056191,-0.08196709,-0.0978714,-0.042754132,-0.06465518,-0.08296673,-0.07884073,-0.042458028,-0.07435583,-0.00273616,0.043897286,0.028587561,0.16568305,0.20127788,0.1842907,0.17400074,0.15983191,0.1895647,0.13787249,0.2513185,0.2840232,0.22935574,0.3114809,0.3082204,0.2712619,0.26316425,0.13419756,0.0892278,-0.009879338,-0.048377994,-0.07838195,-0.105478294,-0.049109697,-0.101907484,-0.064472534,-0.08445091,-0.085013986,-0.009834299,-0.019528782,0.043655563,0.053203907,0.045705516,0.024664078,0.045652367,0.037492085,0.06755497,0.03799429,0.0832578,0.08391164,0.024871247,-0.04644485,0.012015944,0.0017170369,0.0008219203,0.039365083,-0.014010977,-0.048524015,-0.07207087,-0.046545956,-0.043863248,-0.090429924,-0.07519602,-0.05120503,-0.11492842,-0.04476242,-0.035294034,0.020388817,0.09797843,0.086572856,0.11184863,0.088764176,0.14453132,0.06516726,0.07409978,0.039374728,0.06955422,0.059518956,0.0786013,0.053193573,-0.028642245,-0.03861989,-0.13529204,-0.13556398,-0.11553506,-0.08855199,-0.07379551,-0.104176566,-0.09238959,-0.046198767,-0.0994412,-0.12385,-0.09773013,-0.052080214,0.004160753,0.11647402,0.05779678,0.050782982,0.032242633,0.0054164017,-0.0045154146,0.0045080376,0.009216062,0.03563064,0.080438145,0.06630527,0.028690172,-0.040568806,-0.070526324,-0.073547885,-0.08554353,-0.29475752,-0.33549383,-0.15465899,-0.1475579,-0.11227531,-0.10547918,-0.051420357,-0.057730906,-0.055246018,-0.09149748,-0.12548056,0.016132882,0.012764685,0.014673893,0.019217024,-0.0059609534,0.020688757,0.016185407,0.0338525,0.04219325,0.06881927,-0.00087776233,-0.023755714,-0.012494702,-0.10806367,-0.09519528,-0.048524838,-0.031175684,-0.25782433,-0.419706,-0.28262803,-0.17224233,-0.07783722,-0.07200924,-0.089538105,-0.010536805,0.023113078,0.0037854826,-0.06195318,0.008559393,0.055180576,0.059692133,0.06998609,0.013979904,0.06520143,0.0397307,0.02286986,0.11543975,0.006946068,0.019818751,-0.06675323,-0.09646809,-0.08274813,-0.05082637,-0.016022772,0.057616267,-0.17719387,-0.46186826,-0.3017432,-0.13877329,-0.06440137,-0.05299244,-0.05777705,0.04706249,0.061469574,0.041677304,0.06541855,-0.019910261,-0.019814992,0.004350507,0.05542205,0.08503421,0.041431308,0.066560134,0.07519419,0.11668028,0.045116264,0.009646577,-0.068536565,-0.007163425,-0.015563239,-0.003060163,-0.089020506,-0.019069916,-0.13119067,-0.5458261,-0.3145989,-0.14354233,-0.034543604,-0.09559649,-0.069169894,0.03506265,0.026691983,-0.09888169,0.040111415,-0.036826625,-0.09828945,-0.07456461,-0.081973225,-0.020293796,-0.03473976,-0.047560506,0.0034601449,-0.08240024,-0.20012783,-0.084437974,-0.041552525,0.034882113,0.014036039,0.0539244,-0.009937021,0.07184233,-0.06921716,-0.4226831,-0.30762863,-0.15245531,-0.105549596,-0.09252295,-0.03334589,-0.0047642165,-0.04296764,-0.10676531,-0.14827907,-0.11335293,-0.12527676,-0.12632078,-0.1122854,-0.12415176,-0.17885877,-0.14277336,-0.14756417,-0.3225611,-0.30137324,-0.11435463,-0.028149651,0.0033017944,0.04066206,0.07704735,0.117318526,0.102773674,0.013087823,-0.21622597,-0.27263778,-0.25019237,-0.055320803,-0.08664121,-0.07101149,-0.052838836,-0.14092813,-0.15227848,-0.25678033,-0.22763118,-0.14791058,-0.13393523,-0.19996627,-0.19828686,-0.107796066,-0.15127875,-0.19110626,-0.2583172,-0.19256759,-0.048960794,-0.028915908,-0.011523898,0.04201354,0.02561871,0.048925508,0.16745657,0.117037565,-0.042217106,-0.17769752,-0.16973308,-0.0367143,-0.06044159,-0.06694112,-0.09066432,-0.13640055,-0.13493064,-0.17353973,-0.07216966,-0.06293231,-0.0702147,-0.080048405,-0.010169441,0.051353913,-0.071029514,-0.05158714,-0.101050064,-0.053140458,-0.014090242,0.03270404,0.0031769883,0.0042764572,-0.018176066,0.13603441,0.17017512,0.23749484,0.14626199,-0.014889749,-0.06678204,-0.05961336,-0.07511408,-0.07836137,-0.071875125,-0.16792727,-0.113425896,-0.042275872,0.090101875,0.086129665,0.03479635,0.043386675,0.02484015,0.06279104,-0.029801847,-0.030615376,-0.03208475,-0.05753688,0.02764426,-0.016551618,-0.026128557,0.014127571,0.08021375,0.057599936,0.19918907,0.21713862,0.099138744,0.079429924,-0.02040011,-0.09421956,-0.07277736,-0.055169318,-0.11309495,-0.11795113,-0.11423347,0.0136041315,0.17796113,0.13611563,0.062366337,0.083972365,0.15883009,0.053550504,-0.037614018,-0.05903331,-0.05577214,-0.021282833,-0.018961431,0.019416291,-0.039948985,-0.034306973,0.020335956,0.048817083,0.027273316,0.054665603,0.09426647,0.13722113,0.01846664,-0.040341113,-0.06363201,-0.072954446,-0.10737763,-0.12921917,-0.11797125,0.076567516,0.13548419,0.13175344,0.099777095,0.16438678,0.17302053,0.14329864,0.054781698,-0.057737928,-0.10925419,0.005888503,0.026195873,0.00042825975,-0.04905033,-0.05568168,-0.0005332006,-0.02523897,-0.0026510605,-0.06646305,0.08757966,0.26942676,0.07892078,-0.06386167,-0.07798595,-0.05005925,-0.13004386,-0.11242692,-0.08100286,0.063133664,0.019698678,0.09514857,0.1567017,0.21094422,0.16483928,0.2810794,0.050035566,-0.07493848,-0.0708864,0.043387003,0.051535275,0.026824996,0.054638743,-0.0095052095,0.011927988,0.010876996,0.015512753,-0.011920698,0.056454398,0.32784095,-0.034573287,-0.04799298,-0.09918926,-0.050841715,-0.13942479,-0.197021,0.045861963,0.028866438,-0.049587827,0.116791844,0.12690392,0.16264671,0.3039821,0.23586687,0.12910406,0.06703983,-0.0063516623,0.08993241,0.0944949,0.11420244,0.09068951,0.05600394,0.026520148,0.04128318,0.016767431,0.11713021,0.13962068,0.2304947,0.00793621,-0.036220968,-0.062220454,-0.08164221,-0.11095268,-0.24626137,0.04338412,0.012251663,-0.022693437,0.076617755,0.09233476,0.12681226,0.22905347,0.2727066,0.21960713,0.06573611,0.07698182,0.0722278,0.04819756,0.078805245,0.026239052,0.020463955,0.022343762,0.017428087,0.069063656,0.06287807,0.15625317,0.13375086,-0.021568768,-0.07066683,-0.04814652,-0.087908074,-0.07361226,-0.110844366,0.08377167,0.0332919,0.0027410688,0.046286132,0.02704277,0.034687318,0.06563517,0.07430991,0.10451891,0.11048619,0.1579177,0.10059968,0.040879656,-0.020444248,0.015849337,0.0121398335,0.038243663,0.061323028,0.039129462,0.075343385,0.20454478,0.078577116,-0.052991062,-0.06821315,-0.054192808,-0.07665539,-0.09379947,-0.11883876,-0.00022310611,-0.007945836,-0.035529323,-0.024152141,-0.051952716,-0.040593274,-0.07071225,0.022086851,0.110514805,0.14803565,0.08155522,0.018854672,0.052315876,0.055870105,0.048380286,0.0765159,-0.003191332,0.063526414,0.10470825,0.17279047,0.17941214,-0.004416315,-0.03566953,-0.07545235,-0.096907794,-0.04450428,-0.1280568,-0.11094887,0.006947319,0.0108048525,-0.04580546,0.06100473,0.046373248,-0.057887662,-0.023484997,-0.043347813,0.04358621,-0.032367963,-0.011798068,-0.019637574,0.050267708,-0.061940573,-0.035803046,0.023758085,0.09168513,0.10278878,0.12912059,0.0631853,0.054085523,-0.076446965,-0.081601284,-0.0866037,-0.096644886,-0.063512266,-0.0948137,-0.13004017,-0.108601876,-0.03804308,-0.054532927,0.021942805,-0.07770835,-0.0237473,-0.0034187848,-0.0016155846,-0.08979325,-0.06972068,-0.035749927,-0.116902426,-0.10982357,-0.09308346,-0.063667394,-0.039896898,-0.09312548,0.04629918,0.013064531,-0.05999119,-0.07894021,-0.08321311,-0.05192592,-0.063518554,-0.08612803,-0.081058584,-0.0825496,-0.17394498,-0.09143275,0.026731934,-0.12403695,-0.13514706,-0.064020984,-0.06095665,-0.024816418,-0.0023881583,0.010190479,0.040640794,0.026841339,-0.04424326,-0.029891172,0.0066092154,-0.055109583,-0.14568613,-0.038414188,-0.0013062876,-0.069649525,-0.08260003,-0.033896543,-0.074987486,-0.090065815,-0.056099,-0.08126996,-0.04466502,-0.07021663,-0.08192707,0.015614094,0.08448845,0.089257516,0.14215858,0.092485495,0.13334908,0.058929157,0.117886946,0.1299614,0.10633139,0.12574475,0.17976621,0.29195398,0.24764414,0.27207243,0.28893724,0.23937486,0.08770536,-0.048901718,-0.12654643,-0.061326813,-0.05595099,-0.0865023,-0.057228092,-0.062308606,-0.074147455,-0.09028434,-0.09118047,-0.06923591,-0.021929657,0.04934146,0.20611282,0.35310054,0.4046929,0.4786918,0.445618,0.48564497,0.45514745,0.5253747,0.48891142,0.35105434,0.28685912,0.16008338,0.12942336,0.050559927,0.033446953,-0.016093485,-0.10012627,-0.060018875,-0.09195941,-0.057280187,-0.04630169,-0.080449335,-0.09317746,-0.04345264,-0.09931225,-0.050162975,-0.061306383,-0.08614391,-0.057711795,-0.02973599,-0.024018528,0.021780191,-0.002145507,0.0024201688,0.030242432,0.10347502,0.0991759,0.0853541,-0.008745261,-0.0150068505,-0.051856864,-0.07570146,-0.08727724,-0.062099926,-0.062088747,-0.09759138,-0.034564782,-0.08104984,-0.07308707
0.016019229,-0.015738256,-0.037014585,-0.006557821,-0.040949296,-0.036636773,-0.048065547,-0.026741799,0.017008146,-0.026068676,-0.040228408,-0.028879259,-0.019513447,0.011961494,-0.027849495,0.0017022473,-0.038482625,0.013865497,-0.022004366,0.012431346,0.006758734,-0.037885558,-0.046899814,-0.0043688877,-0.041287843,-0.012725567,-0.049486805,0.0049393475,-0.010834597,-0.04596812,-0.0007649405,-0.04690453,0.006841598,-0.03594229,-0.0058196136,-0.04306861,-0.024511142,0.015927503,0.01100311,-0.009064035,-0.06869822,0.006768109,-0.010241392,-0.06732336,-0.12243676,-0.077615105,-0.007360668,0.0016219899,-0.028092587,0.003455132,-0.043823097,-0.007529465,0.0151614845,-0.042451512,0.012326628,0.0034991712,-0.036023196,-0.013743961,0.0071841236,-0.010902862,-0.04423553,-0.007141214,0.017508302,-0.02539596,-0.023282565,0.09552066,0.058902085,0.04606926,0.107249275,0.15795927,0.2452408,0.22340634,0.12899719,0.09473202,0.1782316,0.18741828,0.11905738,0.016451405,-0.022897145,-0.031801097,-0.049593687,-0.044601616,-0.0005402577,-0.008895146,0.0137786325,-0.021597944,0.009117334,0.010694662,-0.04437227,-0.017819507,0.023297431,-0.016485868,0.010321619,0.124358766,0.06566757,0.13574761,0.034792777,0.100801505,0.16388343,0.23924832,0.16841234,0.21525636,0.3551286,0.3172509,0.2058406,0.11808353,0.13046323,0.0797285,-0.028993668,-0.04692384,-0.04370689,-0.013793673,-0.0021126533,0.012943396,-0.022056177,-0.006224041,-0.037370905,-0.025551608,-0.06371572,-0.06954051,-0.0070269536,0.0023882354,-0.054452762,-0.06697087,0.028450508,0.026485715,0.06508995,0.004695269,-0.00090020197,-0.024232404,-0.10504444,-0.04755922,-0.050400592,-0.049335662,-0.03254963,0.08036722,0.026510732,-0.035281096,-0.014364138,0.0025072712,-0.006675689,-0.03897163,-0.04943326,-0.051622316,-0.0891922,-0.08155294,-0.0916933,-0.09434175,-0.0823233,-0.021920485,-0.0383447,-0.096744604,-0.014656557,-0.04310067,0.05840973,0.09369079,0.10440645,0.16993432,0.13272505,0.09833396,0.07459381,0.03903672,0.059187375,0.098993845,-0.024270354,-0.048590805,-0.054808423,-0.028195383,-0.017130667,-0.010460034,-0.032685287,-0.11313079,-0.13888767,-0.14993736,-0.16009909,-0.04591283,-0.05484758,-0.05694805,-0.09258254,-0.09607959,-0.103199326,-0.138007,-0.12747896,-0.059459187,-0.15814579,-0.058122277,-0.09935838,0.030129997,0.015373991,-0.044620693,0.057946213,0.29247883,0.08038521,-0.071410835,-0.017830526,-0.0380889,-0.050072197,0.0008802042,-0.030374167,-0.1551279,-0.1787618,-0.124438755,-0.12688611,0.0056579267,-0.011563245,-0.0002848055,-0.08613679,-0.14827481,-0.13480745,-0.12251595,-0.09676175,-0.023630882,-0.059159186,-0.11010406,-0.11513287,-0.09723374,-0.067342475,0.008717041,0.018668462,0.14025345,0.1027446,-0.09338899,-0.07107174,-0.060867034,-0.03504222,-0.016909795,-0.082432985,-0.14778593,-0.19904007,-0.098481506,0.03123796,0.05643117,0.046584684,0.099710956,0.023484759,-0.029624743,-0.025128586,-0.011265169,-0.06663849,-0.15343925,-0.17144904,-0.16407661,-0.115970545,-0.08237111,-0.08674928,0.0424271,-0.004539657,0.058175623,0.2343047,0.005129331,-0.09570403,-0.06109694,-0.033880714,-0.0403717,-0.09922759,-0.27296874,-0.29659215,-0.15043296,0.08598636,0.046730842,-0.015826419,0.046523448,0.016414167,-0.03266988,-0.10854223,-0.14792453,-0.2463496,-0.2654588,-0.30369264,-0.22819753,-0.14185758,-0.10800988,-0.067050375,0.015597516,-0.05038784,0.036854766,0.034015015,-0.15323302,-0.09321945,-0.033163223,0.00018469496,-0.020727998,-0.13632718,-0.2554779,-0.1842115,-0.13758753,-0.02902719,0.0077315564,-0.012024258,-0.0092009725,0.046674322,-0.022570668,0.031726982,-0.17757191,-0.3674001,-0.33371302,-0.41826993,-0.2555744,-0.2177749,-0.17155243,-0.20448731,-0.10594099,-0.009739468,-0.0006116801,-0.14672458,-0.121797666,-0.13970396,-0.04027079,-0.035003025,-0.06621287,-0.116891466,-0.25736356,-0.10700124,0.010468579,-0.044234406,-0.026526373,0.02992658,0.06374097,0.070743255,0.025373666,0.10496092,-0.0063964888,-0.0072039734,-0.07875072,-0.11831869,-0.101637095,-0.08629224,-0.056941696,-0.12714192,-0.048144877,-0.06418006,0.029379569,-0.034663577,-0.12104211,-0.08032726,0.0025720983,-0.021426076,-0.002242046,-0.07002538,-0.15371154,-0.10571723,-0.05951338,0.017839037,0.08999349,0.014951129,0.089256406,0.04864308,0.08807282,0.114369124,0.1474894,0.15783817,0.13437784,0.046126105,0.07670202,0.06606216,0.010640734,0.03996995,0.10582433,0.1124738,0.2139329,0.05410393,-0.16164947,-0.15471618,0.0031332036,-0.043623447,-0.054940257,-0.03804739,-0.093941115,0.005097593,-0.0055717872,0.048995588,0.10313611,0.104283415,0.0729391,0.017967373,0.08759319,0.11677577,0.19709286,0.24195065,0.2826024,0.10301717,0.14129817,0.09178415,0.089065835,0.061935365,0.1176822,0.18582991,0.14710201,-0.07276875,-0.24308598,-0.22612159,-0.09705252,-0.02344245,-0.022016,-0.037263714,0.036078166,0.10405715,0.06495248,0.14974765,0.10250643,0.07184866,0.056448895,0.034590974,0.19207563,0.203506,0.33210367,0.34166595,0.20224902,0.10547296,0.10225782,-0.025986316,0.0069716084,-0.0196403,-0.07937302,0.07331237,0.040648438,-0.031873323,-0.17593265,-0.18575896,0.011488172,0.007203162,-0.028343508,-0.00853217,-0.046690878,-0.032383855,0.0074686073,0.141265,0.121034525,0.09959484,0.05164309,0.10936938,0.20640977,0.2719897,0.31848857,0.33509684,0.16654614,0.110054545,0.021220094,-0.102599055,-0.16445033,-0.1541321,-0.112914905,-0.040176503,0.036323853,-0.13288604,-0.18886851,-0.13874781,-0.035863295,-0.00045136825,0.003121884,-0.06513313,-0.17309111,-0.23847812,-0.08722438,0.07567589,0.08596818,0.11562407,0.12905677,0.21180429,0.27921557,0.26294386,0.3411468,0.2696446,0.16124934,0.08988085,-0.036007907,-0.19391303,-0.27342153,-0.16612846,-0.14440268,-0.027494086,0.013346019,-0.08132342,-0.25330347,-0.21956392,-0.061293878,0.015327018,-0.011233797,-0.024117252,-0.21902443,-0.33309108,-0.16681471,-0.059929,0.11353871,0.17312875,0.28275636,0.40815046,0.45865571,0.3586131,0.33166102,0.2147546,0.114597596,-0.0059651537,-0.17024368,-0.14530872,-0.16138715,-0.09300362,-0.11572249,-0.06831355,0.056141447,-0.08885201,-0.2779748,-0.14108627,-0.004608902,-0.041838165,-0.042064827,-0.07037095,-0.29635578,-0.3491433,-0.12981848,-0.07101423,0.026382206,0.12405022,0.3204006,0.39088866,0.3673384,0.24173878,0.10202102,0.05798635,-0.03470336,-0.0061172293,-0.12567027,-0.042720243,-0.067367904,0.01567077,-0.08701966,-0.1096168,0.04017775,-0.12203,-0.2436801,-0.06429893,-0.009980685,-0.046302583,-0.0068651545,-0.04354942,-0.29568174,-0.28668892,-0.07677592,0.020091863,-0.0067436798,0.08209343,0.13191351,0.2558366,0.22950684,0.015334359,0.032642968,0.09258512,0.10913296,0.10260948,0.044579104,0.08640489,0.044968024,0.07554505,0.089771494,0.08173916,0.06835724,-0.047729738,-0.21812505,-0.019223554,0.014589395,-0.017083514,-0.014759978,-0.0657958,-0.24405318,-0.31131274,-0.11785232,0.05358591,0.087442815,0.03130325,0.06361496,0.04809785,0.025440143,0.076933905,0.11010254,0.11886458,0.1834282,0.1460765,0.14718667,0.11844807,0.05924314,0.066649206,0.1673939,0.18142901,0.04296639,-0.13705042,-0.10597589,-0.07244402,-0.038159348,-0.042895466,-0.035084542,-0.07420413,-0.198449,-0.18082355,0.01863515,0.035021145,0.07412006,0.035305966,-0.0031193406,-0.00037027145,0.03026945,0.051249098,0.081315674,0.109152876,0.06602971,0.043044742,0.10457602,0.07383232,0.08263427,0.13528967,0.15251777,0.11990396,-0.03256992,-0.12530212,-0.069578245,-0.037467837,0.010218025,-0.05201739,-0.010961438,-0.045733526,-0.1487599,-0.109377004,-0.045451336,0.029174201,-0.035693277,-0.077249035,-0.10070547,-0.11825153,-0.053250093,-0.07562899,-0.06528373,-0.03150436,-0.09728184,-0.06113095,0.014581528,0.018676976,0.11237476,0.05933749,0.13049468,-0.0012928741,-0.052351963,-0.06062636,-0.018410333,-0.03667798,-0.050303962,-0.019272674,-0.014779704,0.006692818,-0.110185556,-0.2399728,-0.21759483,-0.18296216,-0.16874479,0.022935217,-0.029759059,-0.039411996,-0.02194445,0.011669716,0.046620637,0.02481056,0.07455534,0.15174872,0.12083997,0.12290594,0.11312245,0.15672739,0.054759882,-0.010094522,-0.023418829,-0.033643994,-0.038479794,-0.050684527,-0.04978737,-0.0532025,0.01764439,0.01130574,-0.088264704,-0.22384806,-0.35210243,-0.3417659,-0.2967616,-0.14645675,-0.0616591,-0.007419006,0.070680544,0.04064382,0.009978648,0.018249655,-0.015490829,0.10825687,0.013053209,0.10962971,0.2016195,0.21388602,0.12135036,0.09086776,0.08657963,-0.06360094,-0.064258285,-0.04344864,-0.00661549,-0.02039419,-0.024231292,-0.013312613,-0.0366248,-0.077589184,-0.08290396,-0.14559482,-0.19613208,-0.26845184,-0.24838053,-0.24213597,-0.2738835,-0.2519301,-0.20870942,-0.1395646,-0.20503171,-0.15725723,-0.11761431,-0.042823736,-0.035447393,0.11648197,0.07412961,0.042064846,0.03855216,-0.0707112,-0.02469314,-0.040331647,-0.053121556,-0.007822381,0.010677993,0.0023807024,-0.04512428,-0.020697104,-0.0034700972,-0.031912655,-0.07859573,-0.16157179,-0.08820662,-0.03443662,0.048403986,0.0885781,0.026424859,0.015934931,-0.05097035,0.0015709602,-0.014988788,-0.02099218,-0.091922596,0.03253143,-0.029184688,-0.050035045,-0.015670639,-0.009943368,-0.027936228,-0.007633022,0.009387059,-0.02993797,-0.027031034,-0.035211686,0.0042174435,-0.049452513,-0.04526797,0.007321467,-0.05687299,-0.06576698,-0.046921913,-0.05615076,-0.035003282,-0.04918299,-0.11982948,-0.098446004,-0.06467114,-0.042873308,-0.065021016,-0.046262585,-0.060849804,-0.0026624205,-0.037316255,-0.0479254,-0.055904306,-0.020989152,-0.029947551,0.0032327385,-0.037295338
0.007499692,0.026180375,-0.01907508,0.03723196,0.0030606135,-0.023851745,0.022646409,0.007489321,-0.01887903,-0.008097072,0.043515325,0.04410536,0.016618682,0.00083039695,0.022174746,-0.007851804,0.011851491,-0.026783537,-0.020465326,0.014610393,-0.0076730144,-0.0135230785,0.041431576,0.0022241643,0.014973583,0.04183588,0.026706953,-0.013729512,-0.010218084,-0.02426802,-0.019715548,-0.025168758,0.016347071,-0.010623208,0.04087282,0.026198272,-0.0155260395,0.033238396,0.043890357,0.008425566,-0.025898594,0.0036621399,0.027921733,0.030151881,-0.012097811,-0.015308549,0.04362128,0.03300778,-0.021530464,-0.0009558386,0.007378188,0.027378377,0.031453647,0.02394167,0.016355848,0.018343408,0.0046314383,0.034306414,0.01836475,0.008938898,0.036182787,0.0035539146,-0.021180771,0.040384673,0.035792727,-0.00942653,0.020821027,-0.0033559198,0.010851306,0.02298468,0.03964178,-0.01777562,-0.01672782,0.02403716,-0.0039886944,-0.016114157,-0.007465586,-0.0061376067,0.043354876,-0.022014335,-0.005991257,0.025374085,0.03261661,-0.0075777364,0.002559888,-0.02243806,-0.020913322,0.022258561,0.011581273,-0.014154649,0.0047469893,0.030560188,0.03305391,-0.016260192,0.015010992,-0.005033779,0.031428874,-0.017205458,-0.020598587,0.03263523,0.013827457,-0.010349005,0.01867424,0.01062945,-0.0027317835,0.014356461,0.038974583,-0.0057942746,0.04287491,0.022395834,0.037779346,-0.023961607,0.028847694,0.017565895,-0.0068303766,-0.011086958,0.014381798,0.0198928,0.002997889,0.034359246,-0.02523944,-0.011745955,0.030475173,-0.00826137,-0.029075209,-0.030630872,-0.02280642,-0.011262892,-0.011506301,0.010249864,-0.0050814454,-0.020629039,-0.011268676,0.031016404,0.020913115,-0.024005452,0.0024493262,0.044156484,-0.012906717,0.01774307,0.012624267,0.03262609,0.024171036,0.03584883,0.040669166,0.0011753866,0.02328322,0.026226373,-0.023614552,0.011332221,-0.035786353,0.0036197258,-0.008804786,0.0056147384,-0.030199775,-0.009883565,-0.03145763,-0.0052834484,0.017366465,-0.031428237,-0.009731165,0.0041165077,0.034967586,0.028060826,0.032588605,0.0034215383,0.0056736814,-0.018911824,-0.009248307,0.0045749145,-0.0049557276,-0.025787488,-0.019223858,0.025921924,0.022683272,-0.03897742,0.02385763,-0.02280912,0.019135045,-0.012768449,-0.019982748,0.0019227081,0.0013817364,-0.02005076,-0.021305999,0.02479772,-0.022076376,0.011278786,-0.003753227,0.011052475,-0.034786105,0.019074202,-0.023866283,-0.017264862,0.0034246843,-0.021082144,0.029951878,0.034768112,0.0028081115,-0.016773038,-0.004690736,0.001541717,-0.0145797655,-0.04386315,-0.0094990125,-0.03136267,-0.00470149,-0.0102508105,-0.028411798,-0.007761404,-0.04305618,-0.02896543,-0.024968212,0.0066989698,-0.038553376,0.009924212,0.005103508,-0.00024327505,-0.00018641677,-0.018094791,0.024038922,0.03343958,-0.012747831,-0.0030028948,0.010150493,-0.022208955,-0.0054895086,0.002479518,-0.006826728,0.0006029084,0.02685931,-0.020963065,-0.0356641,-0.021567687,-0.031419653,-0.015203294,-0.010075951,-0.021970036,0.005855307,-0.033871606,0.010378331,-0.018773206,-0.020737763,0.00789855,-0.04192878,-0.024194239,-0.0066017737,0.01403816,0.026965246,0.025828514,0.0356918,0.023590501,-0.026327096,0.033910934,-0.015670184,0.023309287,0.040815763,0.012663587,0.00760231,0.021262245,0.0234157,0.03955041,0.0018137392,-0.015686376,0.008266964,-0.010401561,0.015167033,0.017849226,0.026722,-0.041184444,0.0035909403,-0.01916408,-0.029512947,-0.028052954,0.014606576,0.019095682,-0.021347916,-0.004516991,-0.0048506632,-0.020695895,0.0046791406,0.042560928,0.01699102,0.023007238,0.008622273,0.03575246,0.007061295,-0.02466729,-0.01274488,0.042120837,0.015294898,0.011026348,-0.010027507,-0.009806022,0.014526018,-0.038098272,-0.02381198,-0.019896992,0.0015732809,-0.041384824,-0.032913946,-0.02396917,-0.039023034,-0.040820636,-0.016404875,-0.01057974,0.017204225,-0.025480289,0.027532697,0.020538803,-0.026516974,-0.023677692,0.044568427,-0.0027788214,0.023786232,0.0007134781,0.0013870008,-0.010664004,-0.03222424,-0.04072797,-0.008379953,-0.015393967,0.022311697,0.0049144872,-0.02428014,-0.007957456,0.016902654,-0.012416924,-0.009772665,-0.018304968,0.021341696,0.025257958,-0.029244252,0.022108749,0.044171587,0.0034470826,0.0003475562,0.035826337,-0.019327328,-0.00044617208,0.029582314,-0.020760186,0.017491126,0.004490341,-0.023748219,-0.036111303,-0.01640044,-0.025244782,-0.0023828244,-0.013475254,-0.040446945,0.021084689,0.006454426,0.020336768,-0.006359646,0.016373526,-0.033692867,-0.010161895,-0.020473938,0.0017902775,0.032290235,0.015447589,0.024169225,-0.00877975,-0.018035166,0.025885288,0.039162457,-0.0021769495,0.008012118,-0.005040395,0.019820234,0.014370903,0.008444484,-0.01077151,0.017742785,0.0016451031,-0.00266127,0.013674571,-0.02440706,-0.01625264,-0.01687835,0.020204335,-0.008136259,-0.03790229,0.004704033,-0.031997673,0.023232626,-0.0017484,-0.018236442,-0.019609477,-0.009849003,0.008804759,-0.000316303,0.029728819,0.039428458,0.041713804,0.041207183,0.031063382,-0.019683417,-0.027332358,0.01380291,0.011961253,0.015746634,-0.010862731,0.0021925096,-0.0075810426,-0.04555408,0.022238588,0.0071819928,0.014922363,0.022058465,-0.023966134,-0.011073061,-0.022227552,-0.024188874,0.016149048,0.0016304869,0.021787193,-0.022463512,0.02142692,0.036504176,0.038515188,-0.0093693435,0.0042517115,0.00063343934,0.031911008,-0.01994495,-0.043521356,-0.0031470787,-0.03533288,-0.027333386,0.0038042718,-0.040812332,0.0009385636,-0.033829384,-0.0016873433,-0.02708305,-0.0047955927,0.01259675,0.008144037,-0.021976845,-0.040616114,-0.033778485,0.028612407,0.0063817063,-0.013273506,0.00823655,0.0235284,0.003296022,0.005592157,0.03509554,0.0037597816,-0.012848941,0.02536639,-0.011205864,0.0047880188,-0.024715215,-0.016357288,-0.015937794,0.017634796,-0.027564472,0.020326266,-0.01291828,-0.010386449,-0.023772001,-0.017563708,-0.026353296,-0.015817758,0.0072879475,0.00742045,0.024689453,0.031521883,-0.02455742,0.043423302,0.025607869,-0.020071436,0.016684582,-0.01383537,0.020580206,0.021181053,0.017947119,-0.039365295,0.021576615,-0.030274434,-0.032622855,0.021238655,0.0035858501,0.014013751,-0.011894688,-0.011812604,0.015507654,0.03939023,-0.012340274,0.013948698,0.01983193,0.012039897,0.009415838,0.008648332,0.02321957,0.019063067,-0.009921856,-0.005247607,0.03531551,-0.022742324,0.0049835043,0.033560153,-0.014685895,-0.02670688,-0.0009125733,0.016287616,0.025115548,0.0063593085,-0.03731704,0.027219234,0.010261432,-0.027468964,-0.03338171,0.006184446,-0.02132377,0.031599473,-0.016047234,0.008805002,-0.013563857,-0.00038525238,-0.035659038,0.0217552,-0.045155052,-0.023547778,0.031026922,-0.014254304,-0.016585398,0.009519485,0.031939376,0.0116840545,0.03372251,0.04301787,0.024479382,0.0022829545,-0.030827122,0.005579705,0.021128109,-0.013563155,0.006079526,0.0016106939,0.002479171,-0.031696223,0.024257688,-0.021692079,-0.018243356,-0.01060582,-0.009137109,-0.015795907,0.018093344,0.008899976,0.0028148638,0.008656414,0.04149758,-0.013966831,0.007469942,0.027937151,-0.022533461,-0.016227763,-0.0054152925,-0.0003445986,-0.010194444,-0.0351899,-0.03839095,-0.0009086999,0.009367747,0.013700545,-0.042025346,0.008385269,0.020274248,-0.038011808,-0.035449583,-0.010605235,-0.027057424,-0.028687505,0.020915827,-0.037758503,-0.011737774,-0.0025610577,-0.027365647,0.004687012,-0.020291764,-0.011287217,-0.018077757,0.012150856,-0.009531856,0.019342799,0.006685988,0.017081607,0.0051472466,0.022300016,-0.030384144,-0.017968155,0.003195111,0.02430371,0.00950094,-0.0056721573,-0.039966173,-0.024062607,0.0034519758,-0.029254895,-0.0149213215,0.023394493,-0.02244903,-0.009979416,-0.024479223,-0.013204321,-0.02008339,0.038710535,-0.025148295,0.013246989,-0.012725483,-0.0033369751,0.012249069,-0.025878504,0.027264394,-0.015490622,0.013079236,0.0023696257,-0.018316664,0.020978918,0.021186367,0.01114708,-0.024059026,0.017234063,-0.039651725,-0.018822944,0.023296159,-0.023830125,0.01527825,-0.0104948785,-0.03527333,-0.016397174,-0.039359022,0.033633795,0.03825541,-0.009351138,-0.02550887,-0.021303784,0.00068049127,-0.01869091,0.030223753,-0.023628596,-0.0027440751,0.0076835724,0.019037126,0.015193618,0.025463369,-0.018565072,0.027024008,0.016237158,-0.01596089,0.024633152,-0.0057446435,-0.020614613,-0.002136443,0.017155908,-0.02998819,-0.015697436,0.008189531,-0.013694558,0.017070213,0.005228278,0.0051303217,0.01204679,0.036449958,0.0024627787,0.026946433,-0.010865047,0.009610608,0.040108643,0.0017588548,-0.0076071084,0.034123246,-0.009005278,0.03723275,-0.010148048,0.012103337,0.005219393,0.019349813,-0.020426542,0.018877292,0.0045904657,-0.026673274,0.015372178,0.017700411,0.006191546,-0.002184436,0.030521944,0.03668157,0.018501136,-0.02431338,-0.012329402,-0.011320767,0.013958985,-0.013661877,0.03817141,-0.005146113,-0.02501513,-0.0027189555,-0.014079063,0.03501952,0.0032991047,0.0065854164,-0.023741867,-0.019943148,0.0027821294,0.0048728036,-0.020291612,0.0064383047,-0.017381128,0.03312282,0.018683366,0.042892545,-0.012269713,0.003920492,-0.011495029,0.0045912275,0.044012308,-0.016668726,-0.013968398,-0.0058640847,0.035596218,0.0060136253,0.0031126875,0.042461827,0.029375166,-0.023950588,0.014933063,0.004574408,0.035026424,0.0012992509,0.0075743506,0.0388724,0.022167262,-0.0005367116,-0.011066613,0.0026869872,0.0122132655,0.011479658,-0.01070507,-0.0052854167,0.038356375,-0.0021932458,0.002492965,-0.020629067,0.020458039,0.026335359,0.0361483,0.009033621,0.0033672496,-0.022729412,0.033060443,0.0355716,0.0024859316,0.0432351,0.021012872,0.040789798,-0.014316848,0.010985968,0.035487626,0.010271699,0.004005198,0.0027324953,-0.024249207,0.04390677,0.008471376,-0.01425712,0.00507837,0.042335358,0.037029833,-0.004502874,0.0084236255,0.031705998,0.03999915,0.026250314,0.022573698,0.004490518,-0.003913056,0.022379402,0.005366561
